[[-0.16812149493634587,0.3364350405803832,0.41404705871914094],[-0.0933866662347913,0.21163484387709164,0.21703876551294798],[-0.33647681343252767,0.024257322483558497,-0.38439061854349643],[-0.3065245015495289,0.3435126026609212,-0.292486655731818],[-0.1943119108745569,-0.29371720342233076,-0.22629406547739417],[0.3373080253654719,-0.18066191563364786,-0.26043677169875445],[0.31896144027667606,0.06275991983557117,0.4456301986691451],[0.09855204558857678,-0.19501376673649418,0.013972436133329325],[0.26428977172472934,-0.4706825546967257,0.3220050433956718],[-0.2551153605568244,0.05251525563382675,-0.23669764111920633],[0.020471104689239072,-0.44212524028814304,0.248673443273701],[-0.24500330988741714,-0.19524278203064072,0.35707160972750285],[0.4589754760226121,-0.4378147844644479,0.04009068795843207],[0.48409746386906105,-0.0030971727437899554,0.3800595062831269],[0.42437096116185136,-0.04488082100513957,-0.019833293360871695],[-0.042045309502175,0.44782899159672807,0.35901453212529844],[-0.19787586520216838,0.008067532346253237,-0.17083871155113406],[-0.36049030445078367,-0.15800883243499286,0.4031751247150833],[-0.3287797136926065,-0.13063725489308342,0.18359235194818346],[0.11279962170350488,-0.4777258747186923,0.07758070514379378],[-0.46626295113111016,-0.3395343094044957,-0.3659997818839499],[0.17719975106981067,-0.3590525228344169,0.1454803290512492],[0.06947132756042729,0.06473170598310418,0.37703981244703777],[-0.039932942713308495,0.17126823063733143,-0.3704007973755733],[-0.21408931196448977,-0.026482491713524903,0.3466397836351415],[0.12168465142046825,-0.10657587075991393,-0.08497141391492957],[0.43949064987632713,-0.22114423071745326,-0.3651046311245828],[0.09033049587144892,-0.4139251025119377,0.4317452141558542],[0.40440749510922425,-0.36947242683070947,-0.31570650666522226],[-0.3179459679139507,-0.2647348136830301,0.11841705965782434],[0.0017026586856635495,0.2270438972701343,-0.1099110837924977],[0.22322811880681082,0.27942469343122034,-0.061226902646077774],[0.13742263675920718,0.13954113327944329,0.33628378489527766],[0.08458012923181812,-0.41278639404703843,-0.23547690112498143],[0.4976830929035768,0.22633629913218145,0.43479670785217717]]